tree
version=v3.3.5.99
num_class=1
num_tree_per_iteration=1
label_index=0
max_feature_idx=9
objective=regression
feature_names=Column_0 Column_1 Column_2 Column_3 Column_4 Column_5 Column_6 Column_7 Column_8 Column_9
feature_infos=[-2.4883273534129895:2.4126154216129159] [-2.6031370878272986:2.98525900260341] [-2.9069882193216414:3.1520567345120849] [-2.8390786594854269:2.5115565515844236] [-2.929448690002268:2.620793091029975] [-2.5322460852196853:3.9262377064363267] [-2.7043916316027752:3.2430929695947324] [-2.9911359709007233:2.814654444472553] [-2.6042138566271342:2.271449745422796] [-2.3161438629688766:2.4116766755784211]
tree_sizes=801 800 722 725 803 807 808 730 807 807 811 741 810 824 737 820 823 740 737 823

Tree=0
num_leaves=8
num_cat=0
split_feature=0 1 0 0 1 1 0
split_gain=603.514 131.337 118.765 29.0575 25.9364 20.1832 6.82713
threshold=1.0000000180025095e-35 0.60166253466079944 -0.95475249345369584 0.86011885359456131 0.34029333953116564 -0.4564205905553303 -0.41379806919769391
decision_type=2 2 2 2 2 2 2
left_child=2 3 -1 5 6 -2 -4
right_child=1 -3 4 -5 -6 -7 -8
leaf_value=-0.26634107685542074 0.036664567981691411 0.3894890700888613 -0.12212652172194793 0.25107036607772382 0.052456338721955119 0.16847446635204297 -0.039500060633290562
leaf_weight=33 21 36 20 21 23 26 20
leaf_count=33 21 36 20 21 23 26 20
internal_value=0.0681454 0.235042 -0.112659 0.153276 -0.0321593 0.109581 -0.0808133
internal_weight=200 104 96 68 63 47 40
internal_count=200 104 96 68 63 47 40
is_linear=0
shrinkage=1


Tree=1
num_leaves=8
num_cat=0
split_feature=0 0 1 1 0 1 1
split_gain=492.987 111.424 92.4091 37.3157 17.1633 11.0342 9.57268
threshold=0.1551410195023788 -1.0152895404345172 0.60166253466079944 0.5822989429467661 0.86011885359456131 -0.63492184454690315 -0.32977830878443742
decision_type=2 2 2 2 2 2 2
left_child=1 -1 4 5 6 -3 -2
right_child=2 3 -4 -5 -6 -7 -8
leaf_value=-0.31221680601437884 0.0040710177738219498 -0.18371422546250482 0.2971631439293132 0.032785646840929987 0.16463245160522916 -0.091520016903386403 0.10191108375787734
leaf_weight=30 20 21 34 20 21 34 20
leaf_count=30 20 21 34 20 21 34 20
internal_value=-7.255e-10 -0.149338 0.165058 -0.0841862 0.091425 -0.126721 0.0529911
internal_weight=200 105 95 75 61 55 40
internal_count=200 105 95 75 61 55 40
is_linear=0
shrinkage=0.1


Tree=2
num_leaves=7
num_cat=0
split_feature=0 0 1 1 0 0
split_gain=404.31 109.908 63.3615 36.7127 17.9972 7.11427
threshold=-0.19628163103316218 0.98287831430856853 -0.65400681959105766 0.12586623584404971 -0.82422482424983656 0.43760714527161831
decision_type=2 2 2 2 2 2
left_child=2 3 -1 5 -4 -2
right_child=1 -3 4 -5 -6 -7
leaf_value=-0.28990817921502249 -0.043152414914220574 0.2690701498304095 -0.17357522676820342 0.13042226014910518 -0.058342408140500394 0.037351696831839427
leaf_weight=28 23 35 23 37 33 21
leaf_count=28 23 35 23 37 33 21
internal_value=1.28848e-09 0.120991 -0.167083 0.0570062 -0.10567 -0.00473
internal_weight=200 116 84 81 56 44
internal_count=200 116 84 81 56 44
is_linear=0
shrinkage=0.1


Tree=3
num_leaves=7
num_cat=0
split_feature=0 0 0 1 1 0
split_gain=327.491 89.0254 56.8418 29.7373 15.2876 5.76256
threshold=-0.19628163103316218 0.98287831430856853 -1.0807993482695886 0.12586623584404971 0.22138439347311875 0.43760714527161831
decision_type=2 2 2 2 2 2
left_child=2 3 -1 5 -4 -2
right_child=1 -3 4 -5 -6 -7
leaf_value=-0.26989707469388291 -0.038837172414945526 0.24216313498360773 -0.13792389179721024 0.11738003307097666 -0.033031394363691409 0.033616527626734408
leaf_weight=27 23 35 33 37 24 21
leaf_count=27 23 35 33 37 24 21
internal_value=7.59494e-10 0.108892 -0.150375 0.0513056 -0.0937586 -0.004257
internal_weight=200 116 84 81 57 44
internal_count=200 116 84 81 57 44
is_linear=0
shrinkage=0.1


Tree=4
num_leaves=8
num_cat=0
split_feature=0 0 1 1 1 0 1
split_gain=265.368 64.6229 61.379 21.8675 13.2659 7.50155 7.46178
threshold=0.1551410195023788 -1.0807993482695886 0.77164281612256314 0.5822989429467661 -0.65400681959105766 0.69584300221998585 -0.65400681959105766
decision_type=2 2 2 2 2 2 2
left_child=1 -1 4 6 -2 -6 -3
right_child=2 3 -4 -5 5 -7 -8
leaf_value=-0.24290736599100962 0.0010993831924029759 -0.14476000666618347 0.23941576997439068 0.023823168394821032 0.058247859549263252 0.14091412169592721 -0.068947162740939372
leaf_weight=27 21 20 30 21 23 21 37
leaf_count=27 21 20 30 21 23 21 37
internal_value=-1.43424e-10 -0.109566 0.1211 -0.0634097 0.0664921 0.0977022 -0.0955482
internal_weight=200 105 95 78 65 44 57
internal_count=200 105 95 78 65 44 57
is_linear=0
shrinkage=0.1


Tree=5
num_leaves=8
num_cat=0
split_feature=0 0 1 1 0 0 1
split_gain=219.264 69.7155 41.0991 27.1004 8.38875 6.85285 6.68261
threshold=-0.19628163103316218 1.2032630875103445 -0.65400681959105766 0.12586623584404971 -0.82422482424983656 0.54898258529952493 0.86393551952458136
decision_type=2 2 2 2 2 2 2
left_child=2 3 -1 5 -4 -2 -5
right_child=1 -3 4 6 -6 -7 -8
leaf_value=-0.22196481004357338 -0.030752837153030906 0.25894660234451294 -0.11994283283534257 0.075810727119445809 -0.041270527300057994 0.042687256680801512 0.15336297601461413
leaf_weight=28 27 20 23 25 33 24 20
leaf_count=28 27 20 23 25 33 24 20
internal_value=3.25206e-10 0.0891002 -0.123043 0.0537156 -0.0735824 0.00380721 0.110278
internal_weight=200 116 84 96 56 51 45
internal_count=200 116 84 96 56 51 45
is_linear=0
shrinkage=0.1


Tree=6
num_leaves=8
num_cat=0
split_feature=0 0 1 1 0 0 0
split_gain=179.565 60.6906 30.7904 26.553 7.16726 6.09914 3.13456
threshold=-0.32384247158348117 1.2032630875103445 -0.4077449036407555 0.12586623584404971 0.54898258529952493 0.47008869413079074 -0.82422482424983656
decision_type=2 2 2 2 2 2 2
left_child=2 3 -1 4 -2 -5 -4
right_child=1 -3 6 5 -6 -7 -8
leaf_value=-0.20302328159069194 -0.033402481937611646 0.23305193930864335 -0.099934243996228495 0.066347944101801629 0.038418531883507967 0.13820397995767139 -0.047527414411306382
leaf_weight=29 33 20 21 27 24 21 25
leaf_count=29 33 20 21 27 24 21 25
internal_value=3.3481e-10 0.0733958 -0.122326 0.0429852 -0.00316206 0.097785 -0.0714523
internal_weight=200 125 75 105 57 48 46
internal_count=200 125 75 105 57 48 46
is_linear=0
shrinkage=0.1


Tree=7
num_leaves=7
num_cat=0
split_feature=0 1 1 0 1 1
split_gain=145.902 49.2877 29.659 11.6629 5.93267 4.95587
threshold=-0.29572457426901616 0.77164281612256314 -0.65400681959105766 0.66152658153427968 0.22138439347311875 -0.034387066959282613
decision_type=2 2 2 2 2 2
left_child=2 3 -1 5 -4 -2
right_child=1 -3 4 -5 -6 -7
leaf_value=-0.1940248340368271 -0.024809513839356829 0.16850494435855323 -0.10425481228601366 0.074815846482912701 -0.035415545562582633 0.037333175112005505
leaf_weight=26 33 35 21 33 31 21
leaf_count=26 33 35 21 33 31 21
internal_value=2.58675e-10 0.0682941 -0.106819 0.0279794 -0.063216 -0.000642913
internal_weight=200 122 78 87 52 54
internal_count=200 122 78 87 52 54
is_linear=0
shrinkage=0.1


Tree=8
num_leaves=8
num_cat=0
split_feature=0 0 0 1 1 1 0
split_gain=118.416 45.0212 25.5167 17.9388 7.09269 4.68147 3.60851
threshold=-0.32384247158348117 1.2032630875103445 -1.216140929695259 -0.50165877132357184 1.0349192379838814 0.22138439347311875 0.3974306837629793
decision_type=2 2 2 2 2 2 2
left_child=2 3 -1 -2 6 -4 -5
right_child=1 -3 5 4 -6 -7 -8
leaf_value=-0.1928716384229206 -0.026319625192520429 0.19711225368082524 -0.088325059089449154 0.011680839445695958 0.11248491197824478 -0.028780351482007818 0.065388783651950041
leaf_weight=21 34 20 31 22 20 23 29
leaf_count=21 34 20 31 22 20 23 29
internal_value=-3.61964e-10 0.0596026 -0.0993377 0.0334103 0.0620134 -0.0629634 0.0422207
internal_weight=200 125 75 105 71 54 51
internal_count=200 125 75 105 71 54 51
is_linear=0
shrinkage=0.1


Tree=9
num_leaves=8
num_cat=0
split_feature=0 0 0 1 1 1 1
split_gain=97.5738 30.1358 27.3843 9.02098 8.06583 3.27042 2.59421
threshold=0.1551410195023788 -1.216140929695259 1.2032630875103445 0.5822989429467661 0.50746737632848282 -0.69958438824586022 -0.61314474108156836
decision_type=2 2 2 2 2 2 2
left_child=1 -1 4 5 6 -3 -2
right_child=2 3 -4 -5 -6 -7 -8
leaf_value=-0.17358447455224538 -0.0052493002531783925 -0.090793563387844542 0.17740102699026467 0.017108907938624421 0.089432021430521105 -0.042461266969552353 0.04161389127925591
leaf_weight=21 21 21 20 21 27 42 27
leaf_count=21 21 21 20 21 27 42 27
internal_value=-3.25497e-10 -0.0664383 0.0734318 -0.0396518 0.0457067 -0.058572 0.0211112
internal_weight=200 105 95 84 75 63 48
internal_count=200 105 95 84 75 63 48
is_linear=0
shrinkage=0.1


Tree=10
num_leaves=8
num_cat=0
split_feature=0 1 1 1 0 2 0
split_gain=80.0598 29.4355 19.1395 8.14659 5.95394 2.99661 1.35132
threshold=-0.29572457426901616 0.77164281612256314 -0.36332631162893664 -0.87486743583277249 0.66152658153427968 0.042216922019593615 0.2961000169439284
decision_type=2 2 2 2 2 2 2
left_child=2 3 -1 -2 6 -4 -5
right_child=1 -3 5 4 -6 -7 -8
leaf_value=-0.13851814311929048 -0.036573850297136237 0.12803230336734225 -0.063334746948828027 -0.0039484084245156158 0.07479149311967194 -0.012288234613673843 0.031966660125181082
leaf_weight=32 20 35 23 22 25 23 20
leaf_count=32 20 35 23 22 25 23 20
internal_value=6.57747e-12 0.0505894 -0.079127 0.0194342 0.0361531 -0.0378115 0.013154
internal_weight=200 122 78 87 67 46 42
internal_count=200 122 78 87 67 46 42
is_linear=0
shrinkage=0.1


Tree=11
num_leaves=7
num_cat=0
split_feature=0 0 1 1 1 9
split_gain=66.3182 31.6762 22.3673 6.02651 2.07792 1.21779
threshold=0.59059763311417413 -0.82422482424983656 0.77164281612256314 -0.073775137750294775 0.83640120814935603 -0.011493786880179616
decision_type=2 2 2 2 2 2
left_child=1 -1 -2 5 -5 -3
right_child=2 3 -4 4 -6 -7
leaf_value=-0.11390154778670808 0.044927119253537595 -0.051754658550701362 0.17499958768486978 -0.00026858039200305939 0.039932920322753494 -0.019182339900483691
leaf_weight=39 39 22 20 36 20 24
leaf_count=39 39 22 20 36 20 24
internal_value=-4.62402e-10 -0.0372493 0.0890195 -0.00794107 0.0140891 -0.0347604
internal_weight=200 141 59 102 56 46
internal_count=200 141 59 102 56 46
is_linear=0
shrinkage=0.1


Tree=12
num_leaves=8
num_cat=0
split_feature=0 0 1 1 1 0 1
split_gain=54.5478 25.1541 14.0911 6.75418 2.99217 1.65182 1.38008
threshold=-0.41379806919769391 1.0496326621721837 -0.4077449036407555 -0.81625601631261335 0.86393551952458136 0.2961000169439284 0.3967269753148131
decision_type=2 2 2 2 2 2 2
left_child=2 3 -1 -2 5 -5 -4
right_child=1 -3 6 4 -6 -7 -8
leaf_value=-0.13007482061019313 -0.036001182828719419 0.12008269679700506 -0.056030829548835759 -0.0018318855445142144 0.061205486599355943 0.031298384788062648 -0.020113276042368101
leaf_weight=26 21 29 20 27 20 34 23
leaf_count=26 21 29 20 27 20 34 23
internal_value=-1.5134e-11 0.037902 -0.0719589 0.014537 0.0276394 0.0166342 -0.0368191
internal_weight=200 131 69 102 81 61 43
internal_count=200 131 69 102 81 61 43
is_linear=0
shrinkage=0.1


Tree=13
num_leaves=8
num_cat=0
split_feature=0 0 1 1 0 1 9
split_gain=44.6408 23.7019 15.9825 4.45117 4.11942 0.851538 0.932766
threshold=0.66152658153427968 -1.0152895404345172 -0.26360968520898415 -0.81625601631261335 -0.48060353322527111 -0.034387066959282613 0.38814801737312626
decision_type=2 2 2 2 2 2 2
left_child=1 -1 -2 -3 -5 -6 -7
right_child=2 3 -4 4 5 6 -8
leaf_value=-0.10766667187213899 0.0081427879538387062 -0.048566825408488515 0.12143202225367229 -0.027866946253925565 0.00086010190779748177 0.040278553083044247 0.0097373321373015655
leaf_weight=30 20 22 33 32 23 20 20
leaf_count=30 20 22 33 32 23 20 20
internal_value=-2.67712e-10 -0.0283681 0.0786814 -0.00803515 0.00135113 0.0161921 0.0250079
internal_weight=200 147 53 117 95 63 40
internal_count=200 147 53 117 95 63 40
is_linear=0
shrinkage=0.1


Tree=14
num_leaves=7
num_cat=0
split_feature=0 0 1 1 0 1
split_gain=36.4334 19.0319 14.6472 5.28114 3.77358 0.807566
threshold=0.59059763311417413 -1.216140929695259 0.77164281612256314 -0.87486743583277249 -0.48060353322527111 -0.034387066959282613
decision_type=2 2 2 2 2 2
left_child=1 -1 -2 -3 -5 -6
right_child=2 3 -4 4 5 -7
leaf_value=-0.11543286535001936 0.030300179262382862 -0.057789099855082376 0.1355583991855383 -0.026793927618135246 -0.0020848396234214306 0.021989892827542989
leaf_weight=21 39 21 20 39 22 38
leaf_count=21 39 21 20 39 22 38
internal_value=-7.86968e-11 -0.027609 0.0659809 -0.0122399 -0.00257792 0.0131625
internal_weight=200 141 59 120 99 60
internal_count=200 141 59 120 99 60
is_linear=0
shrinkage=0.1


Tree=15
num_leaves=8
num_cat=0
split_feature=1 0 1 1 0 0 0
split_gain=30.0523 22.6028 8.28666 5.7758 4.88246 1.6183 0.208198
threshold=0.86393551952458136 -0.69070082209478934 -0.4077449036407555 -0.97760577110472779 0.76242827878499619 -0.10520105226720873 0.37425749935218983
decision_type=2 2 2 2 2 2 2
left_child=1 2 -1 -3 5 -5 -7
right_child=-2 3 -4 4 -6 6 -8
leaf_value=-0.12700990185141564 0.082735974362326992 -0.044738556416705252 -0.039854277608295283 -0.015398232663937961 0.053450395979840928 0.0072782781483097516 0.021035841979425065
leaf_weight=20 36 20 24 32 24 22 22
leaf_count=20 36 20 24 32 24 22 22
internal_value=-2.49187e-10 -0.0181616 -0.0794705 0.00431838 0.0141298 0.00171273 0.0141571
internal_weight=200 164 44 120 100 76 44
internal_count=200 164 44 120 100 76 44
is_linear=0
shrinkage=0.1


Tree=16
num_leaves=8
num_cat=0
split_feature=0 0 1 0 9 0 1
split_gain=25.4354 15.6379 5.29233 4.08933 1.24875 0.727813 0.475538
threshold=1.0496326621721837 -1.216140929695259 -0.92794599508697406 -0.48060353322527111 -0.37925983014359066 0.47008869413079074 0.28372660928562987
decision_type=2 2 2 2 2 2 2
left_child=1 -1 -3 6 -5 -6 -4
right_child=-2 2 3 4 5 -7 -8
leaf_value=-0.095507589798598067 0.086597065874857132 -0.049925680059407444 -0.033253863108257065 0.035637492616660896 0.0016358542139641942 0.024263050593435767 -0.011447020174236969
leaf_weight=21 29 21 20 24 44 21 20
leaf_count=21 29 21 20 24 44 21 20
internal_value=2.41896e-10 -0.0146861 -0.00337104 0.00420763 0.0161438 0.00894618 -0.0223504
internal_weight=200 171 150 129 89 65 40
internal_count=200 171 150 129 89 65 40
is_linear=0
shrinkage=0.1


Tree=17
num_leaves=7
num_cat=0
split_feature=1 0 0 1 0 9
split_gain=22.1021 15.2733 6.25916 2.31383 0.95688 0.568625
threshold=0.86393551952458136 -1.216140929695259 0.2961000169439284 -0.4077449036407555 -0.62581544556254454 0.30714590652836099
decision_type=2 2 2 2 2 2
left_child=1 -1 4 -4 -3 -6
right_child=-2 2 3 -5 5 -7
leaf_value=-0.097461299356073144 0.070953316551943632 -0.038172447034675219 -0.0011346431821584702 0.036968029665705913 -0.024830977033291544 -0.0040817483644932512
leaf_weight=20 36 27 30 34 28 25
leaf_count=20 36 27 30 34 28 25
internal_value=-7.03149e-11 -0.0155751 -0.00420204 0.0191074 -0.0228496 -0.0150436
internal_weight=200 164 144 64 80 53
internal_count=200 164 144 64 80 53
is_linear=0
shrinkage=0.1


Tree=18
num_leaves=7
num_cat=0
split_feature=0 0 1 1 0 3
split_gain=18.7118 10.4445 2.78616 1.75918 1.5388 0.32304
threshold=1.0667756497042016 -0.82422482424983656 -0.90305992204675534 1.2103853849971922 -0.10520105226720873 0.14841086910406101
decision_type=2 2 2 2 2 2
left_child=1 -1 -3 4 -4 -6
right_child=-2 2 3 -5 5 -7
leaf_value=-0.057406824784210102 0.079128199242628539 -0.032127074347365468 -0.013751529157161713 0.034441511677578092 0.019915282200755821 0.0047250554215029945
leaf_weight=39 26 21 38 20 28 28
leaf_count=39 26 21 38 20 28 28
internal_value=1.57161e-10 -0.0118238 0.00134469 0.00751054 0.00178055 0.0123202
internal_weight=200 174 135 114 94 56
internal_count=200 174 135 114 94 56
is_linear=0
shrinkage=0.1


Tree=19
num_leaves=8
num_cat=0
split_feature=1 0 1 0 3 0 5
split_gain=15.7673 10.7878 4.61966 3.51292 1.2582 0.860829 0.104858
threshold=0.86393551952458136 -1.216140929695259 -1.1199777054403357 0.334702090450746 1.0000000180025095e-35 -0.55219377084292864 0.47378701218787955
decision_type=2 2 2 2 2 2 2
left_child=1 -1 -3 5 -5 -4 -7
right_child=-2 2 3 4 -6 6 -8
leaf_value=-0.081974487258121384 0.059928598826647632 -0.048195246011018759 -0.023847921288989743 0.037969305046967106 0.0064034300164127244 0.0028003842257021462 -0.0070036910078488295
leaf_weight=20 36 20 29 28 23 24 20
leaf_count=20 36 20 29 28 23 24 20
internal_value=3.97413e-11 -0.0131551 -0.0035968 0.00359649 0.0237337 -0.010472 -0.00165601
internal_weight=200 164 144 124 51 73 44
internal_count=200 164 144 124 51 73 44
is_linear=0
shrinkage=0.1


end of trees

feature_importances:
Column_0=67
Column_1=58
Column_9=4
Column_3=2
Column_2=1
Column_5=1

parameters:
[boosting: gbdt]
[objective: regression]
[metric: l2]
[tree_learner: serial]
[device_type: cpu]
[data_sample_strategy: bagging]
[data: ]
[valid: ]
[num_iterations: 20]
[learning_rate: 0.1]
[num_leaves: 8]
[num_threads: 10]
[seed: 0]
[deterministic: 0]
[force_col_wise: 0]
[force_row_wise: 0]
[histogram_pool_size: -1]
[max_depth: -1]
[min_data_in_leaf: 20]
[min_sum_hessian_in_leaf: 0.001]
[bagging_fraction: 1]
[pos_bagging_fraction: 1]
[neg_bagging_fraction: 1]
[bagging_freq: 0]
[bagging_seed: 3]
[bagging_by_query: 0]
[feature_fraction: 1]
[feature_fraction_bynode: 1]
[feature_fraction_seed: 2]
[extra_trees: 0]
[extra_seed: 6]
[early_stopping_round: 0]
[early_stopping_min_delta: 0]
[first_metric_only: 0]
[max_delta_step: 0]
[lambda_l1: 0]
[lambda_l2: 0]
[linear_lambda: 0]
[min_gain_to_split: 0]
[drop_rate: 0.1]
[max_drop: 50]
[skip_drop: 0.5]
[xgboost_dart_mode: 0]
[uniform_drop: 0]
[drop_seed: 4]
[top_rate: 0.2]
[other_rate: 0.1]
[min_data_per_group: 100]
[max_cat_threshold: 32]
[cat_l2: 10]
[cat_smooth: 10]
[max_cat_to_onehot: 4]
[top_k: 20]
[monotone_constraints: ]
[monotone_constraints_method: basic]
[monotone_penalty: 0]
[feature_contri: ]
[forcedsplits_filename: ]
[refit_decay_rate: 0.9]
[cegb_tradeoff: 1]
[cegb_penalty_split: 0]
[cegb_penalty_feature_lazy: ]
[cegb_penalty_feature_coupled: ]
[path_smooth: 0]
[interaction_constraints: ]
[verbosity: -1]
[saved_feature_importance_type: 0]
[use_quantized_grad: 0]
[num_grad_quant_bins: 4]
[quant_train_renew_leaf: 0]
[stochastic_rounding: 1]
[linear_tree: 0]
[max_bin: 255]
[max_bin_by_feature: ]
[min_data_in_bin: 3]
[bin_construct_sample_cnt: 200000]
[data_random_seed: 1]
[is_enable_sparse: 1]
[enable_bundle: 1]
[use_missing: 1]
[zero_as_missing: 0]
[feature_pre_filter: 1]
[pre_partition: 0]
[two_round: 0]
[header: 0]
[label_column: ]
[weight_column: ]
[group_column: ]
[ignore_column: ]
[categorical_feature: ]
[forcedbins_filename: ]
[precise_float_parser: 0]
[parser_config_file: ]
[objective_seed: 5]
[num_class: 1]
[is_unbalance: 0]
[scale_pos_weight: 1]
[sigmoid: 1]
[boost_from_average: 1]
[reg_sqrt: 0]
[alpha: 0.9]
[fair_c: 1]
[poisson_max_delta_step: 0.7]
[tweedie_variance_power: 1.5]
[lambdarank_truncation_level: 30]
[lambdarank_norm: 1]
[label_gain: ]
[lambdarank_position_bias_regularization: 0]
[eval_at: ]
[multi_error_top_k: 1]
[auc_mu_weights: ]
[num_machines: 1]
[local_listen_port: 12400]
[time_out: 120]
[machine_list_filename: ]
[machines: ]
[gpu_platform_id: -1]
[gpu_device_id: -1]
[gpu_use_dp: 0]
[num_gpu: 1]

end of parameters

pandas_categorical:null
